digraph Tree {
node [shape=box, style="filled, rounded", color="black", fontname=helvetica] ;
edge [fontname=helvetica] ;
0 [label="petal length (cm) <= 2.45\ngini = 0.66\nsamples = 96\nvalue = [45, 56, 49]\nclass = versicolor", fillcolor="#f1fdf6"] ;
1 [label="gini = 0.0\nsamples = 32\nvalue = [45, 0, 0]\nclass = setosa", fillcolor="#e58139"] ;
0 -> 1 [labeldistance=2.5, labelangle=45, headlabel="True"] ;
2 [label="petal length (cm) <= 4.85\ngini = 0.5\nsamples = 64\nvalue = [0, 56, 49]\nclass = versicolor", fillcolor="#e6fcef"] ;
0 -> 2 [labeldistance=2.5, labelangle=-45, headlabel="False"] ;
3 [label="petal length (cm) <= 4.75\ngini = 0.04\nsamples = 34\nvalue = [0, 54, 1]\nclass = versicolor", fillcolor="#3de583"] ;
2 -> 3 ;
4 [label="gini = 0.0\nsamples = 31\nvalue = [0, 50, 0]\nclass = versicolor", fillcolor="#39e581"] ;
3 -> 4 ;
5 [label="petal width (cm) <= 1.6\ngini = 0.32\nsamples = 3\nvalue = [0, 4, 1]\nclass = versicolor", fillcolor="#6aeca0"] ;
3 -> 5 ;
6 [label="gini = 0.0\nsamples = 1\nvalue = [0, 3, 0]\nclass = versicolor", fillcolor="#39e581"] ;
5 -> 6 ;
7 [label="sepal width (cm) <= 3.0\ngini = 0.5\nsamples = 2\nvalue = [0, 1, 1]\nclass = versicolor", fillcolor="#ffffff"] ;
5 -> 7 ;
8 [label="gini = 0.0\nsamples = 1\nvalue = [0, 0, 1]\nclass = virginica", fillcolor="#8139e5"] ;
7 -> 8 ;
9 [label="gini = 0.0\nsamples = 1\nvalue = [0, 1, 0]\nclass = versicolor", fillcolor="#39e581"] ;
7 -> 9 ;
10 [label="petal length (cm) <= 5.05\ngini = 0.08\nsamples = 30\nvalue = [0, 2, 48]\nclass = virginica", fillcolor="#8641e6"] ;
2 -> 10 ;
11 [label="petal width (cm) <= 1.75\ngini = 0.41\nsamples = 5\nvalue = [0, 2, 5]\nclass = virginica", fillcolor="#b388ef"] ;
10 -> 11 ;
12 [label="petal width (cm) <= 1.6\ngini = 0.44\nsamples = 2\nvalue = [0, 2, 1]\nclass = versicolor", fillcolor="#9cf2c0"] ;
11 -> 12 ;
13 [label="gini = 0.0\nsamples = 1\nvalue = [0, 0, 1]\nclass = virginica", fillcolor="#8139e5"] ;
12 -> 13 ;
14 [label="gini = 0.0\nsamples = 1\nvalue = [0, 2, 0]\nclass = versicolor", fillcolor="#39e581"] ;
12 -> 14 ;
15 [label="gini = 0.0\nsamples = 3\nvalue = [0, 0, 4]\nclass = virginica", fillcolor="#8139e5"] ;
11 -> 15 ;
16 [label="gini = 0.0\nsamples = 25\nvalue = [0, 0, 43]\nclass = virginica", fillcolor="#8139e5"] ;
10 -> 16 ;
}